{
  "experiment_type": "v3_exq_449a_sd016_cue_action_proj_forward_path_probe",
  "run_id": "v3_exq_449a_sd016_cue_action_proj_forward_path_probe_20260421T181058Z_v3",
  "architecture_epoch": "ree_hybrid_guardrails_v1",
  "claim_ids": [
    "SD-016"
  ],
  "claim_ids_tested": [
    "SD-016"
  ],
  "experiment_purpose": "diagnostic",
  "evidence_class": "diagnostic_probe",
  "outcome": "PASS",
  "timestamp_utc": "20260421T181058Z",
  "evidence_direction": "diagnostic",
  "evidence_direction_note": "Diagnostic probe of SD-016 cue_action_proj forward path (EXP-0155). Outcome MUST NOT be used to update SD-016 claim confidence. Result identifies the specific blocker in the forward path and determines the fix plan for EXQ-418b re-run. detach is not the sole blocker. Forward-path tensor(s) below threshold: action_bias per-channel std < 1e-4 (constant output across contexts, g2). Requires redesigning how cue_action_proj output is consumed (learnable scale, different injection point, or folding cue_action into E2.action_object() directly).",
  "acceptance_checks": {
    "C1_diagnosis_localised": true,
    "C1_offenders": [
      "action_bias per-channel std < 1e-4 (constant output across contexts, g2)"
    ],
    "C2_detach_isolated_bonus": false,
    "C3_context_memory_pre_zero": true,
    "C4_supervised_target_sanity": true,
    "primary_pass": true,
    "baseline_norm_thresh": 0.0001,
    "context_memory_norm_thresh": 0.001,
    "target_norm_thresh": 0.001,
    "coverage_thresh": 0.8,
    "detach_bypass_div_thresh": 0.05
  },
  "diagnosis_summary": "detach is not the sole blocker. Forward-path tensor(s) below threshold: action_bias per-channel std < 1e-4 (constant output across contexts, g2). Requires redesigning how cue_action_proj output is consumed (learnable scale, different injection point, or folding cue_action into E2.action_object() directly).",
  "training_variants": {
    "W_std": {
      "label": "W_std",
      "no_detach": false,
      "weight_delta_norm": 0.0880170464515686,
      "weight_norm_final": 2.3023834228515625,
      "weight_max_abs_final": 0.1270342469215393,
      "weight_nonzero_frac": 1.0,
      "target_norm_mean": 0.3443829277641286,
      "target_coverage_gt_1e-3": 1.0,
      "n_target_samples": 1091
    },
    "W_no_detach": {
      "label": "W_no_detach",
      "no_detach": true,
      "weight_delta_norm": 0.0880170464515686,
      "weight_norm_final": 2.3023834228515625,
      "weight_max_abs_final": 0.1270342469215393,
      "weight_nonzero_frac": 1.0,
      "target_norm_mean": 0.3443829277641286,
      "target_coverage_gt_1e-3": 1.0,
      "n_target_samples": 1091
    }
  },
  "eval_regimes": {
    "g1_supervised_active_during_eval": {
      "regime": "g1",
      "n_safe": 168,
      "n_dang": 68,
      "action_bias_div": 0.0033752918243408203,
      "action_bias_norm_mean": 0.3273101615703712,
      "action_bias_norm_min": 0.3224918842315674,
      "action_bias_norm_max": 0.33034026622772217,
      "action_bias_per_channel_std": 0.005323376972228289,
      "action_bias_coverage_gt_1e-3": 1.0,
      "terrain_weight_norm_mean": 0.8531894565133725,
      "ao_target_norm_mean": 0.3449308940414655,
      "ao_target_coverage_gt_1e-3": 1.0,
      "attn_entropy_mean": 2.772588317677126,
      "attn_max_weight_mean": 0.06259149193006047,
      "context_memory": {
        "slot_norm_mean": 0.2656826376914978,
        "slot_norm_min": 0.23849177360534668,
        "slot_norm_max": 0.2918270230293274,
        "slot_diversity": 0.1726741154988607,
        "num_slots": 16
      },
      "sampled_action_biases": [
        [
          0.06394530087709427,
          0.08921526372432709,
          0.012143392115831375,
          0.11326561123132706,
          -0.12998908758163452,
          -0.05311448127031326,
          -0.04648461937904358,
          0.07713884115219116,
          -0.06496120989322662,
          0.03808049112558365,
          0.1064576581120491,
          0.04671211540699005,
          -0.08609241247177124,
          -0.10514801740646362,
          -0.0012090131640434265,
          0.11615394800901413
        ],
        [
          0.07150097191333771,
          0.0751420259475708,
          0.020375467836856842,
          0.10567459464073181,
          -0.1314350962638855,
          -0.055440351366996765,
          -0.04843829944729805,
          0.07648222893476486,
          -0.06539551168680191,
          0.03756182640790939,
          0.09763354808092117,
          0.04873920977115631,
          -0.08193176984786987,
          -0.11477544158697128,
          0.012045908719301224,
          0.13491275906562805
        ],
        [
          0.08002667129039764,
          0.0817108303308487,
          0.02462364360690117,
          0.10420731455087662,
          -0.13142552971839905,
          -0.05540143698453903,
          -0.05385139212012291,
          0.07406758517026901,
          -0.055425651371479034,
          0.0334576740860939,
          0.09939538687467575,
          0.058543384075164795,
          -0.0913863480091095,
          -0.10581441223621368,
          0.009364113211631775,
          0.1313416063785553
        ],
        [
          0.08906015753746033,
          0.09455971419811249,
          0.03062281385064125,
          0.10891523212194443,
          -0.13438184559345245,
          -0.04893691837787628,
          -0.05377539247274399,
          0.06691468507051468,
          -0.045431964099407196,
          0.034868866205215454,
          0.10828570276498795,
          0.06074153631925583,
          -0.0917360708117485,
          -0.09806495159864426,
          0.015600539743900299,
          0.11809924244880676
        ],
        [
          0.07313140481710434,
          0.08745668828487396,
          0.02483651414513588,
          0.10072008520364761,
          -0.1243022084236145,
          -0.0568326935172081,
          -0.052839718759059906,
          0.08347806334495544,
          -0.0733649954199791,
          0.03191369026899338,
          0.09770307689905167,
          0.0511411651968956,
          -0.08453446626663208,
          -0.11080820858478546,
          0.013468306511640549,
          0.1343395709991455
        ],
        [
          0.05512165278196335,
          0.07143723964691162,
          0.021118972450494766,
          0.11589650809764862,
          -0.13175535202026367,
          -0.05269889533519745,
          -0.034585095942020416,
          0.08088462799787521,
          -0.08421552181243896,
          0.041378431022167206,
          0.0985293984413147,
          0.03417681157588959,
          -0.07339005172252655,
          -0.12086841464042664,
          0.007814139127731323,
          0.12454153597354889
        ],
        [
          0.06924937665462494,
          0.07767704874277115,
          0.0321381501853466,
          0.1121927797794342,
          -0.1315358430147171,
          -0.055325619876384735,
          -0.03876299783587456,
          0.08049953728914261,
          -0.07944157719612122,
          0.03614969551563263,
          0.09852133691310883,
          0.04434915632009506,
          -0.07833737134933472,
          -0.11549379676580429,
          0.013459425419569016,
          0.12584258615970612
        ],
        [
          0.06938295811414719,
          0.08516764640808105,
          0.020956672728061676,
          0.10665339976549149,
          -0.13077795505523682,
          -0.05323675274848938,
          -0.04959503188729286,
          0.07879471778869629,
          -0.06472579389810562,
          0.0358598455786705,
          0.10187608748674393,
          0.05147724598646164,
          -0.08415141701698303,
          -0.10890264064073563,
          0.008593723177909851,
          0.12646901607513428
        ],
        [
          0.08199130743741989,
          0.09074822068214417,
          0.021642975509166718,
          0.10685281455516815,
          -0.13318221271038055,
          -0.050792448222637177,
          -0.0546797476708889,
          0.07102479785680771,
          -0.05083964020013809,
          0.03589985519647598,
          0.10816004127264023,
          0.0554240420460701,
          -0.08938176929950714,
          -0.10217362642288208,
          0.0099385567009449,
          0.12408183515071869
        ],
        [
          0.06933024525642395,
          0.07695332169532776,
          0.03310825675725937,
          0.11228364706039429,
          -0.13178494572639465,
          -0.055756427347660065,
          -0.038213592022657394,
          0.07992054522037506,
          -0.07884874939918518,
          0.036668561398983,
          0.0976656973361969,
          0.04410984367132187,
          -0.07713750004768372,
          -0.11638449877500534,
          0.014424309134483337,
          0.12667405605316162
        ]
      ]
    },
    "g2_frozen_weights_post_training": {
      "regime": "g2",
      "n_safe": 150,
      "n_dang": 89,
      "action_bias_div": 0.0,
      "action_bias_norm_mean": 0.32551433426565707,
      "action_bias_norm_min": 0.3255142271518707,
      "action_bias_norm_max": 0.3255144953727722,
      "action_bias_per_channel_std": 2.69537849817425e-08,
      "action_bias_coverage_gt_1e-3": 1.0,
      "terrain_weight_norm_mean": 0.8537257879847762,
      "ao_target_norm_mean": 0.3451251852711873,
      "ao_target_coverage_gt_1e-3": 1.0,
      "attn_entropy_mean": 2.772588288933662,
      "attn_max_weight_mean": 0.06259155307728875,
      "context_memory": {
        "slot_norm_mean": 0.2656826376914978,
        "slot_norm_min": 0.23849177360534668,
        "slot_norm_max": 0.2918270230293274,
        "slot_diversity": 0.1726741154988607,
        "num_slots": 16
      },
      "sampled_action_biases": [
        [
          0.068519227206707,
          0.0805557444691658,
          0.017586518079042435,
          0.10448897629976273,
          -0.1295064389705658,
          -0.0588391050696373,
          -0.05019395053386688,
          0.0787176564335823,
          -0.06619113683700562,
          0.03361354023218155,
          0.09539881348609924,
          0.05148300528526306,
          -0.0826522558927536,
          -0.11245843023061752,
          0.007800634950399399,
          0.13340401649475098
        ],
        [
          0.0685192197561264,
          0.08055572211742401,
          0.017586592584848404,
          0.10448902100324631,
          -0.12950636446475983,
          -0.058839164674282074,
          -0.05019395798444748,
          0.0787176638841629,
          -0.06619107723236084,
          0.03361355513334274,
          0.09539879858493805,
          0.05148306488990784,
          -0.082652248442173,
          -0.1124584823846817,
          0.007800668478012085,
          0.1334039866924286
        ],
        [
          0.06851918995380402,
          0.08055578172206879,
          0.01758653298020363,
          0.10448906570672989,
          -0.129506453871727,
          -0.05883922427892685,
          -0.05019397288560867,
          0.0787176787853241,
          -0.06619106233119965,
          0.03361355513334274,
          0.09539879113435745,
          0.05148299038410187,
          -0.08265227824449539,
          -0.1124584823846817,
          0.0078006647527217865,
          0.13340401649475098
        ],
        [
          0.068519227206707,
          0.08055585622787476,
          0.01758650317788124,
          0.10448912531137466,
          -0.129506453871727,
          -0.05883923918008804,
          -0.05019400268793106,
          0.07871769368648529,
          -0.06619110703468323,
          0.03361349552869797,
          0.09539882093667984,
          0.05148303508758545,
          -0.0826522707939148,
          -0.1124584823846817,
          0.007800698280334473,
          0.13340401649475098
        ],
        [
          0.06851917505264282,
          0.0805557444691658,
          0.01758650317788124,
          0.10448902100324631,
          -0.129506453871727,
          -0.05883914977312088,
          -0.05019398033618927,
          0.0787176713347435,
          -0.06619106233119965,
          0.03361357003450394,
          0.09539879113435745,
          0.05148299038410187,
          -0.08265229314565659,
          -0.11245843768119812,
          0.007800623774528503,
          0.13340401649475098
        ],
        [
          0.06851925700902939,
          0.08055582642555237,
          0.01758650317788124,
          0.10448912531137466,
          -0.12950646877288818,
          -0.05883925408124924,
          -0.05019401013851166,
          0.07871770858764648,
          -0.06619107723236084,
          0.03361349552869797,
          0.09539882838726044,
          0.051482975482940674,
          -0.0826522707939148,
          -0.1124584972858429,
          0.007800698280334473,
          0.1334039866924286
        ],
        [
          0.06851920485496521,
          0.0805557519197464,
          0.017586562782526016,
          0.1044890359044075,
          -0.1295064389705658,
          -0.05883919447660446,
          -0.050193965435028076,
          0.0787176713347435,
          -0.06619106233119965,
          0.03361358493566513,
          0.09539878368377686,
          0.05148303508758545,
          -0.0826522558927536,
          -0.11245846003293991,
          0.007800683379173279,
          0.1334039568901062
        ],
        [
          0.06851924955844879,
          0.08055582642555237,
          0.01758650317788124,
          0.10448911041021347,
          -0.12950648367404938,
          -0.05883925408124924,
          -0.05019401013851166,
          0.07871769368648529,
          -0.06619106233119965,
          0.03361351042985916,
          0.09539881348609924,
          0.05148300528526306,
          -0.08265227824449539,
          -0.11245846003293991,
          0.00780070573091507,
          0.13340401649475098
        ],
        [
          0.0685192197561264,
          0.08055589348077774,
          0.017586443573236465,
          0.10448914021253586,
          -0.12950651347637177,
          -0.058839283883571625,
          -0.05019407719373703,
          0.0787176787853241,
          -0.06619107723236084,
          0.03361354023218155,
          0.09539883583784103,
          0.05148299038410187,
          -0.08265228569507599,
          -0.11245846748352051,
          0.00780067965388298,
          0.13340407609939575
        ],
        [
          0.0685192421078682,
          0.08055576682090759,
          0.01758653298020363,
          0.10448900610208511,
          -0.1295064240694046,
          -0.058839209377765656,
          -0.05019395053386688,
          0.0787176862359047,
          -0.06619106978178024,
          0.033613599836826324,
          0.09539879858493805,
          0.05148303508758545,
          -0.0826522558927536,
          -0.1124584823846817,
          0.007800649851560593,
          0.1334039866924286
        ]
      ]
    },
    "g3_detach_bypassed_during_training": {
      "regime": "g3",
      "n_safe": 214,
      "n_dang": 70,
      "action_bias_div": 0.0,
      "action_bias_norm_mean": 0.32249192872517546,
      "action_bias_norm_min": 0.3224918246269226,
      "action_bias_norm_max": 0.3224920630455017,
      "action_bias_per_channel_std": 2.5482220777917064e-08,
      "action_bias_coverage_gt_1e-3": 1.0,
      "terrain_weight_norm_mean": 0.8525163539698426,
      "ao_target_norm_mean": 0.34455513985643926,
      "ao_target_coverage_gt_1e-3": 1.0,
      "attn_entropy_mean": 2.7725883101073787,
      "attn_max_weight_mean": 0.06259146361598666,
      "context_memory": {
        "slot_norm_mean": 0.2660183012485504,
        "slot_norm_min": 0.23881545662879944,
        "slot_norm_max": 0.2921730577945709,
        "slot_diversity": 0.17223695119222004,
        "num_slots": 16
      },
      "sampled_action_biases": [
        [
          0.06394530087709427,
          0.08921526372432709,
          0.012143392115831375,
          0.11326561123132706,
          -0.12998908758163452,
          -0.05311448127031326,
          -0.04648461937904358,
          0.07713884115219116,
          -0.06496120989322662,
          0.03808049112558365,
          0.1064576581120491,
          0.04671211540699005,
          -0.08609241247177124,
          -0.10514801740646362,
          -0.0012090131640434265,
          0.11615394800901413
        ],
        [
          0.06394533812999725,
          0.08921533823013306,
          0.012143392115831375,
          0.11326565593481064,
          -0.12998907268047333,
          -0.05311454087495804,
          -0.04648464918136597,
          0.07713883370161057,
          -0.06496123969554901,
          0.03808044642210007,
          0.10645769536495209,
          0.046712130308151245,
          -0.08609241247177124,
          -0.10514804720878601,
          -0.0012089498341083527,
          0.11615393310785294
        ],
        [
          0.06394535303115845,
          0.08921530097723007,
          0.012143421918153763,
          0.11326570063829422,
          -0.12998908758163452,
          -0.05311458557844162,
          -0.04648461192846298,
          0.07713881880044937,
          -0.06496120989322662,
          0.03808043152093887,
          0.10645759850740433,
          0.04671216011047363,
          -0.08609241247177124,
          -0.105148084461689,
          -0.0012089572846889496,
          0.11615393310785294
        ],
        [
          0.06394536048173904,
          0.08921530842781067,
          0.012143407016992569,
          0.11326564103364944,
          -0.12998908758163452,
          -0.05311454087495804,
          -0.04648466408252716,
          0.07713884860277176,
          -0.06496123224496841,
          0.03808046132326126,
          0.10645762085914612,
          0.04671217501163483,
          -0.08609239757061005,
          -0.1051480770111084,
          -0.0012089647352695465,
          0.11615392565727234
        ],
        [
          0.06394536793231964,
          0.08921529352664948,
          0.012143421918153763,
          0.11326567083597183,
          -0.12998905777931213,
          -0.05311454087495804,
          -0.04648461192846298,
          0.07713879644870758,
          -0.06496123224496841,
          0.03808041661977768,
          0.10645757615566254,
          0.04671218991279602,
          -0.08609241247177124,
          -0.1051480695605278,
          -0.001208968460559845,
          0.11615394055843353
        ],
        [
          0.06394531577825546,
          0.08921533823013306,
          0.012143407016992569,
          0.11326570063829422,
          -0.12998907268047333,
          -0.053114570677280426,
          -0.04648464173078537,
          0.07713882625102997,
          -0.06496120989322662,
          0.03808046132326126,
          0.10645762830972672,
          0.04671217501163483,
          -0.08609241992235184,
          -0.1051480621099472,
          -0.0012089647352695465,
          0.11615395545959473
        ],
        [
          0.06394535303115845,
          0.08921530842781067,
          0.012143421918153763,
          0.11326561123132706,
          -0.12998905777931213,
          -0.053114525973796844,
          -0.04648464173078537,
          0.07713884860277176,
          -0.06496123224496841,
          0.03808044642210007,
          0.1064576506614685,
          0.04671216011047363,
          -0.08609238266944885,
          -0.1051480621099472,
          -0.0012089498341083527,
          0.11615390330553055
        ],
        [
          0.06394532322883606,
          0.08921536058187485,
          0.012143392115831375,
          0.11326573044061661,
          -0.1299891173839569,
          -0.05311461538076401,
          -0.04648467153310776,
          0.07713885605335236,
          -0.06496124714612961,
          0.038080401718616486,
          0.10645762830972672,
          0.04671216011047363,
          -0.08609240502119064,
          -0.1051480621099472,
          -0.0012089274823665619,
          0.11615394800901413
        ],
        [
          0.06394532322883606,
          0.08921531587839127,
          0.012143421918153763,
          0.11326565593481064,
          -0.12998905777931213,
          -0.053114570677280426,
          -0.04648464173078537,
          0.07713883370161057,
          -0.06496122479438782,
          0.03808044642210007,
          0.10645762830972672,
          0.04671217501163483,
          -0.08609238266944885,
          -0.10514803975820541,
          -0.001208961009979248,
          0.11615393310785294
        ],
        [
          0.06394533812999725,
          0.08921532332897186,
          0.012143407016992569,
          0.11326567083597183,
          -0.12998905777931213,
          -0.05311458557844162,
          -0.04648464173078537,
          0.07713887095451355,
          -0.06496122479438782,
          0.03808043152093887,
          0.10645762830972672,
          0.04671216011047363,
          -0.08609238266944885,
          -0.10514803975820541,
          -0.0012089423835277557,
          0.11615394055843353
        ]
      ]
    }
  },
  "params": {
    "seed": 42,
    "p0_episodes": 25,
    "p1_episodes": 50,
    "eval_episodes": 12,
    "steps_per_episode": 150,
    "context_switch_every": 5,
    "lambda_terrain": 0.1,
    "lambda_cue_action": 0.5,
    "sd016_enabled": true,
    "sws_enabled": false,
    "rem_enabled": false,
    "shy_enabled": false,
    "dry_run": false
  }
}