{
  "experiment_type": "v3_exq_449b_sd016_cue_action_proj_consumer_fix",
  "run_id": "v3_exq_449b_sd016_cue_action_proj_consumer_fix_20260424T021756Z_v3",
  "architecture_epoch": "ree_hybrid_guardrails_v1",
  "claim_ids": [
    "SD-016"
  ],
  "claim_ids_tested": [
    "SD-016"
  ],
  "experiment_purpose": "diagnostic",
  "evidence_class": "diagnostic_probe",
  "outcome": "PASS",
  "timestamp_utc": "20260424T021756Z",
  "supersedes": "V3-EXQ-449a",
  "evidence_direction": "diagnostic",
  "evidence_direction_note": "Diagnostic verification of the EXQ-449a consumer fix for SD-016 cue_action_proj. Outcome MUST NOT be used to update SD-016 claim confidence. Verifies that cue_action_proj output has per-channel variation across contexts after the [cue_context, z_world] concat fix in extract_cue_context. Consumer fix verified at the projection level (per-channel std clears 1e-3) but safe vs dangerous divergence is below 0.05. The fix removes the constant-output failure mode but contextual selectivity is weak under random-action eval; integration test EXQ-418b can still proceed (the original failure was action_bias_divergence=0.0; non-zero is the necessary precondition the integration test was blocked on).",
  "acceptance_checks": {
    "P1_per_channel_std": true,
    "S1_norm_mean": true,
    "S2_target_sanity": true,
    "S3_action_bias_div": false,
    "primary_pass": true,
    "primary_per_channel_std_thresh": 0.001,
    "norm_thresh": 0.001,
    "coverage_thresh": 0.8,
    "divergence_thresh": 0.05
  },
  "diagnosis_summary": "Consumer fix verified at the projection level (per-channel std clears 1e-3) but safe vs dangerous divergence is below 0.05. The fix removes the constant-output failure mode but contextual selectivity is weak under random-action eval; integration test EXQ-418b can still proceed (the original failure was action_bias_divergence=0.0; non-zero is the necessary precondition the integration test was blocked on).",
  "training_variants": {
    "W_std": {
      "label": "W_std",
      "no_detach": false,
      "weight_delta_norm": 0.10366369038820267,
      "weight_norm_final": 2.316502332687378,
      "weight_max_abs_final": 0.10537582635879517,
      "weight_nonzero_frac": 1.0,
      "target_norm_mean": 0.3626693697504556,
      "target_coverage_gt_1e-3": 1.0,
      "n_target_samples": 1091
    },
    "W_no_detach": {
      "label": "W_no_detach",
      "no_detach": true,
      "weight_delta_norm": 0.10366369038820267,
      "weight_norm_final": 2.316502332687378,
      "weight_max_abs_final": 0.10537582635879517,
      "weight_nonzero_frac": 1.0,
      "target_norm_mean": 0.3626693697504556,
      "target_coverage_gt_1e-3": 1.0,
      "n_target_samples": 1091
    }
  },
  "eval_regimes": {
    "g1_supervised_active_during_eval": {
      "regime": "g1",
      "n_safe": 168,
      "n_dang": 68,
      "action_bias_div": 0.006392359733581543,
      "action_bias_norm_mean": 0.34455551964751746,
      "action_bias_norm_min": 0.32426199316978455,
      "action_bias_norm_max": 0.3633725047111511,
      "action_bias_per_channel_std": 0.006949935108423233,
      "action_bias_coverage_gt_1e-3": 1.0,
      "terrain_weight_norm_mean": 0.8533194486872625,
      "ao_target_norm_mean": 0.36221560810582115,
      "ao_target_coverage_gt_1e-3": 1.0,
      "attn_entropy_mean": 2.7725872791419595,
      "attn_max_weight_mean": 0.0627142311847311,
      "context_memory": {
        "slot_norm_mean": 0.26194506883621216,
        "slot_norm_min": 0.24537591636180878,
        "slot_norm_max": 0.28395146131515503,
        "slot_diversity": 0.1782087326049805,
        "num_slots": 16
      },
      "sampled_action_biases": [
        [
          -0.22223371267318726,
          0.046618036925792694,
          0.07373207062482834,
          0.015545547008514404,
          0.09814716875553131,
          -0.004176154732704163,
          0.05601781606674194,
          -0.012908630073070526,
          -0.08015217632055283,
          0.018280010670423508,
          -0.009433858096599579,
          -0.014948230236768723,
          0.097313292324543,
          -0.04652934521436691,
          0.06687110662460327,
          0.12911517918109894
        ],
        [
          -0.23726485669612885,
          0.03581564873456955,
          0.07276006042957306,
          0.019082389771938324,
          0.08697377145290375,
          0.014211684465408325,
          0.05804406479001045,
          -0.017947770655155182,
          -0.07310736179351807,
          0.020401664078235626,
          0.0007436498999595642,
          0.0048752762377262115,
          0.13024358451366425,
          -0.0722159743309021,
          0.05893837660551071,
          0.12367531657218933
        ],
        [
          -0.23076856136322021,
          0.027439191937446594,
          0.08115964382886887,
          0.015140347182750702,
          0.09405534714460373,
          0.007066316902637482,
          0.05370677635073662,
          -0.007221944630146027,
          -0.07968085259199142,
          0.00875900685787201,
          -0.00618375837802887,
          0.0098387710750103,
          0.12789973616600037,
          -0.059876762330532074,
          0.05705864354968071,
          0.1140737384557724
        ],
        [
          -0.23478195071220398,
          0.018489859998226166,
          0.07699434459209442,
          -0.001078091561794281,
          0.10542329400777817,
          0.02394428849220276,
          0.04625508561730385,
          -0.007408179342746735,
          -0.07691608369350433,
          0.0014942772686481476,
          -0.01673804223537445,
          -0.004543785005807877,
          0.11822248250246048,
          -0.049174532294273376,
          0.05194302275776863,
          0.10291005671024323
        ],
        [
          -0.25014686584472656,
          0.02734287828207016,
          0.07640166580677032,
          0.025216415524482727,
          0.09457658976316452,
          0.015803322196006775,
          0.06192434951663017,
          -0.020356498658657074,
          -0.06896033138036728,
          0.018467668443918228,
          0.011277817189693451,
          0.01620650291442871,
          0.12805454432964325,
          -0.07080648839473724,
          0.039999403059482574,
          0.1121407300233841
        ],
        [
          -0.24298974871635437,
          0.04787712171673775,
          0.06869377195835114,
          0.022660084068775177,
          0.08576270192861557,
          0.017697356641292572,
          0.06226003170013428,
          -0.023894473910331726,
          -0.07363300770521164,
          0.02327527478337288,
          0.018110163509845734,
          -0.007663443684577942,
          0.1162574514746666,
          -0.07095992565155029,
          0.05749988183379173,
          0.1278192400932312
        ],
        [
          -0.23996031284332275,
          0.03904598951339722,
          0.07421119511127472,
          0.01899310201406479,
          0.08960743248462677,
          0.01533188670873642,
          0.06511775404214859,
          -0.019929416477680206,
          -0.06847849488258362,
          0.020772118121385574,
          0.0074869319796562195,
          0.0031492579728364944,
          0.11609750986099243,
          -0.06673304736614227,
          0.051021527498960495,
          0.12373163551092148
        ],
        [
          -0.238755464553833,
          0.03419788181781769,
          0.0749611109495163,
          0.01386938989162445,
          0.09867832064628601,
          0.014280430972576141,
          0.05754935368895531,
          -0.01797574758529663,
          -0.07511023432016373,
          0.01592409610748291,
          0.005956709384918213,
          0.004259578883647919,
          0.10943447798490524,
          -0.056339822709560394,
          0.054035305976867676,
          0.11656072735786438
        ],
        [
          -0.23531268537044525,
          0.02674848586320877,
          0.07268667221069336,
          0.007217772305011749,
          0.1036096140742302,
          0.01801677793264389,
          0.05811184272170067,
          -0.014581017196178436,
          -0.07759669423103333,
          0.011851731687784195,
          -0.008711107075214386,
          -0.0015392005443572998,
          0.1239812821149826,
          -0.05309310555458069,
          0.05266401544213295,
          0.11214965581893921
        ],
        [
          -0.25005289912223816,
          0.03942866623401642,
          0.06369536370038986,
          0.01787630468606949,
          0.0903208926320076,
          0.01821306347846985,
          0.05958937481045723,
          -0.01446487009525299,
          -0.06883314996957779,
          0.025356337428092957,
          0.011518396437168121,
          0.00715230219066143,
          0.1224081814289093,
          -0.0747973695397377,
          0.042275749146938324,
          0.1125500500202179
        ]
      ]
    },
    "g2_frozen_weights_post_training": {
      "regime": "g2",
      "n_safe": 150,
      "n_dang": 89,
      "action_bias_div": 0.002016901969909668,
      "action_bias_norm_mean": 0.34261933380589826,
      "action_bias_norm_min": 0.32880502939224243,
      "action_bias_norm_max": 0.3563011884689331,
      "action_bias_per_channel_std": 0.0032841674983501434,
      "action_bias_coverage_gt_1e-3": 1.0,
      "terrain_weight_norm_mean": 0.853628130886844,
      "ao_target_norm_mean": 0.35892602576870297,
      "ao_target_coverage_gt_1e-3": 1.0,
      "attn_entropy_mean": 2.772587289371251,
      "attn_max_weight_mean": 0.06271384276106766,
      "context_memory": {
        "slot_norm_mean": 0.26194506883621216,
        "slot_norm_min": 0.24537591636180878,
        "slot_norm_max": 0.28395146131515503,
        "slot_diversity": 0.1782087326049805,
        "num_slots": 16
      },
      "sampled_action_biases": [
        [
          -0.2285410463809967,
          0.04252687096595764,
          0.07664397358894348,
          0.019022345542907715,
          0.08825331181287766,
          0.0023525431752204895,
          0.05085092782974243,
          -0.0194350928068161,
          -0.06957819312810898,
          0.017787165939807892,
          -0.006345644593238831,
          -0.0002435930073261261,
          0.10484850406646729,
          -0.055196281522512436,
          0.061194080859422684,
          0.13008567690849304
        ],
        [
          -0.22598600387573242,
          0.040282994508743286,
          0.07726956903934479,
          0.017738766968250275,
          0.09190074354410172,
          0.000812336802482605,
          0.05692819878458977,
          -0.017372101545333862,
          -0.07258990406990051,
          0.01978866010904312,
          -0.004159316420555115,
          0.00444958359003067,
          0.12102323025465012,
          -0.059838805347681046,
          0.07199392467737198,
          0.13384737074375153
        ],
        [
          -0.2244669795036316,
          0.03525499254465103,
          0.07462765276432037,
          0.019339412450790405,
          0.09177184849977493,
          0.0037839561700820923,
          0.052557531744241714,
          -0.018143832683563232,
          -0.0713944062590599,
          0.012713141739368439,
          -0.0016301646828651428,
          0.0024572759866714478,
          0.113888680934906,
          -0.05677533149719238,
          0.06257489323616028,
          0.13381817936897278
        ],
        [
          -0.24004575610160828,
          0.037378452718257904,
          0.07468525320291519,
          0.02004999667406082,
          0.09084296226501465,
          0.01504247635602951,
          0.06366942077875137,
          -0.019719146192073822,
          -0.07781325280666351,
          0.016941159963607788,
          -0.000790819525718689,
          0.007977493107318878,
          0.1270543932914734,
          -0.06522530317306519,
          0.05921320989727974,
          0.1279417872428894
        ],
        [
          -0.22535771131515503,
          0.04320825636386871,
          0.08129717409610748,
          0.02178531140089035,
          0.08664453029632568,
          0.0015303269028663635,
          0.05136879161000252,
          -0.01837126910686493,
          -0.0688922181725502,
          0.014749109745025635,
          -0.008411526679992676,
          -0.0013932585716247559,
          0.10430940240621567,
          -0.05293181538581848,
          0.06591936200857162,
          0.13143500685691833
        ],
        [
          -0.23931005597114563,
          0.037889569997787476,
          0.07614321261644363,
          0.0193479061126709,
          0.08965053409337997,
          0.009799562394618988,
          0.06105194240808487,
          -0.015727348625659943,
          -0.07964986562728882,
          0.018115565180778503,
          -0.004639774560928345,
          0.010529685765504837,
          0.11894018203020096,
          -0.06314736604690552,
          0.05712002143263817,
          0.12730173766613007
        ],
        [
          -0.2400166094303131,
          0.03670129179954529,
          0.069557785987854,
          0.020397543907165527,
          0.09150446206331253,
          0.009893625974655151,
          0.05688761547207832,
          -0.017336025834083557,
          -0.07623035460710526,
          0.02100653201341629,
          -0.0011620745062828064,
          0.007926780730485916,
          0.13139799237251282,
          -0.06678250432014465,
          0.056969814002513885,
          0.12519213557243347
        ],
        [
          -0.24348080158233643,
          0.03672483563423157,
          0.07380361109972,
          0.019572347402572632,
          0.08811826258897781,
          0.012380965054035187,
          0.0584612675011158,
          -0.015393614768981934,
          -0.07847001403570175,
          0.019333280622959137,
          -0.0055257827043533325,
          0.011364374309778214,
          0.12527748942375183,
          -0.06890438497066498,
          0.051796022802591324,
          0.12468498945236206
        ],
        [
          -0.24068760871887207,
          0.03449563682079315,
          0.07737226784229279,
          0.019399620592594147,
          0.08642406761646271,
          0.011646091938018799,
          0.05985894799232483,
          -0.02010573446750641,
          -0.0791192278265953,
          0.017766207456588745,
          -0.006070815026760101,
          0.007939361035823822,
          0.1222180724143982,
          -0.0682772770524025,
          0.05789588764309883,
          0.12732255458831787
        ],
        [
          -0.23464146256446838,
          0.03949350863695145,
          0.07489807158708572,
          0.019880712032318115,
          0.09147592633962631,
          0.00437464565038681,
          0.06330004334449768,
          -0.01123085618019104,
          -0.07786086946725845,
          0.021184608340263367,
          -0.004901662468910217,
          0.008832696825265884,
          0.11992374807596207,
          -0.06374697387218475,
          0.05955915525555611,
          0.1302601397037506
        ]
      ]
    },
    "g3_detach_bypassed_during_training": {
      "regime": "g3",
      "n_safe": 214,
      "n_dang": 70,
      "action_bias_div": 0.0014839768409729004,
      "action_bias_norm_mean": 0.34325947696474235,
      "action_bias_norm_min": 0.32427871227264404,
      "action_bias_norm_max": 0.35896140336990356,
      "action_bias_per_channel_std": 0.003440123051404953,
      "action_bias_coverage_gt_1e-3": 1.0,
      "terrain_weight_norm_mean": 0.8524841534000047,
      "ao_target_norm_mean": 0.36129216965235456,
      "ao_target_coverage_gt_1e-3": 1.0,
      "attn_entropy_mean": 2.7725872724828586,
      "attn_max_weight_mean": 0.06271367255126087,
      "context_memory": {
        "slot_norm_mean": 0.26247796416282654,
        "slot_norm_min": 0.24592269957065582,
        "slot_norm_max": 0.28448620438575745,
        "slot_diversity": 0.17748336791992192,
        "num_slots": 16
      },
      "sampled_action_biases": [
        [
          -0.22223371267318726,
          0.046618036925792694,
          0.07373207062482834,
          0.015545547008514404,
          0.09814716875553131,
          -0.004176154732704163,
          0.05601781606674194,
          -0.012908630073070526,
          -0.08015217632055283,
          0.018280010670423508,
          -0.009433858096599579,
          -0.014948230236768723,
          0.097313292324543,
          -0.04652934521436691,
          0.06687110662460327,
          0.12911517918109894
        ],
        [
          -0.23623040318489075,
          0.04081904515624046,
          0.0685124471783638,
          0.014351792633533478,
          0.09805402159690857,
          0.00972011685371399,
          0.06471213698387146,
          -0.018220074474811554,
          -0.08662406355142593,
          0.022319529205560684,
          -0.006934039294719696,
          -0.005770795047283173,
          0.10678277164697647,
          -0.05806439369916916,
          0.06101878732442856,
          0.12843869626522064
        ],
        [
          -0.21968522667884827,
          0.041345879435539246,
          0.07133745402097702,
          0.016110993921756744,
          0.10029376298189163,
          -0.004499755799770355,
          0.058750029653310776,
          -0.00526871532201767,
          -0.08200400322675705,
          0.02129659429192543,
          -0.009020544588565826,
          -0.008967354893684387,
          0.11341621726751328,
          -0.0542876310646534,
          0.06504394859075546,
          0.13343489170074463
        ],
        [
          -0.2340465784072876,
          0.03977268934249878,
          0.0706087201833725,
          0.015425525605678558,
          0.10060422867536545,
          0.005992375314235687,
          0.06234108284115791,
          -0.015544265508651733,
          -0.08768132328987122,
          0.019920777529478073,
          -0.0037662237882614136,
          -0.008483879268169403,
          0.11387898772954941,
          -0.05354535952210426,
          0.0627744048833847,
          0.1264708787202835
        ],
        [
          -0.22243216633796692,
          0.03909019008278847,
          0.07244021445512772,
          0.017233766615390778,
          0.0995640680193901,
          -0.0003790333867073059,
          0.057664282619953156,
          -0.01234525442123413,
          -0.0823659598827362,
          0.017052892595529556,
          -0.007352963089942932,
          -0.012634489685297012,
          0.10940543562173843,
          -0.05368119850754738,
          0.06718718260526657,
          0.13053090870380402
        ],
        [
          -0.2232651710510254,
          0.04162357747554779,
          0.07010743021965027,
          0.014454521238803864,
          0.10010773688554764,
          6.7196786403656e-05,
          0.05608312785625458,
          -0.011171311140060425,
          -0.08198469132184982,
          0.019267912954092026,
          -0.005972705781459808,
          -0.009822960942983627,
          0.10750295966863632,
          -0.05252978205680847,
          0.0654299259185791,
          0.12981092929840088
        ],
        [
          -0.22543177008628845,
          0.037867769598960876,
          0.0743243619799614,
          0.01704426109790802,
          0.09869987517595291,
          0.00313374400138855,
          0.05656873807311058,
          -0.01629294455051422,
          -0.08360050618648529,
          0.01591194048523903,
          -0.007687769830226898,
          -0.013759031891822815,
          0.10746076703071594,
          -0.0486062616109848,
          0.06389939785003662,
          0.13037548959255219
        ],
        [
          -0.23222076892852783,
          0.04340304806828499,
          0.07162763923406601,
          0.01371854543685913,
          0.09979579597711563,
          0.0018561184406280518,
          0.06187484413385391,
          -0.008883997797966003,
          -0.08616609126329422,
          0.023251812905073166,
          -0.011172957718372345,
          -0.0038963407278060913,
          0.11303539574146271,
          -0.057918645441532135,
          0.06046126410365105,
          0.12520478665828705
        ],
        [
          -0.2326565980911255,
          0.03814765065908432,
          0.06886497139930725,
          0.01552756130695343,
          0.10097575932741165,
          0.008466877043247223,
          0.05723879486322403,
          -0.012754455208778381,
          -0.08357136696577072,
          0.016214478760957718,
          -0.006899498403072357,
          -0.006499990820884705,
          0.11627089232206345,
          -0.05378814786672592,
          0.054085735231637955,
          0.12683162093162537
        ],
        [
          -0.2379932701587677,
          0.03956982493400574,
          0.06763877719640732,
          0.01610635221004486,
          0.10043448954820633,
          0.010657384991645813,
          0.06036212295293808,
          -0.014772728085517883,
          -0.08607377111911774,
          0.018665242940187454,
          -0.0034196600317955017,
          -0.006888914853334427,
          0.11514933407306671,
          -0.05772225931286812,
          0.055230338126420975,
          0.12203444540500641
        ]
      ]
    }
  },
  "params": {
    "seed": 42,
    "p0_episodes": 25,
    "p1_episodes": 50,
    "eval_episodes": 12,
    "steps_per_episode": 150,
    "context_switch_every": 5,
    "lambda_terrain": 0.1,
    "lambda_cue_action": 0.5,
    "sd016_enabled": true,
    "sws_enabled": false,
    "rem_enabled": false,
    "shy_enabled": false,
    "dry_run": false
  }
}