{
  "experiment_type": "v3_exq_449a_sd016_cue_action_proj_forward_path_probe",
  "run_id": "v3_exq_449a_sd016_cue_action_proj_forward_path_probe_20260421T202422Z_v3",
  "architecture_epoch": "ree_hybrid_guardrails_v1",
  "claim_ids": [
    "SD-016"
  ],
  "claim_ids_tested": [
    "SD-016"
  ],
  "experiment_purpose": "diagnostic",
  "evidence_class": "diagnostic_probe",
  "outcome": "PASS",
  "timestamp_utc": "20260421T202422Z",
  "evidence_direction": "diagnostic",
  "evidence_direction_note": "Diagnostic probe of SD-016 cue_action_proj forward path (EXP-0155). Outcome MUST NOT be used to update SD-016 claim confidence. Result identifies the specific blocker in the forward path and determines the fix plan for EXQ-418b re-run. detach is not the sole blocker. Forward-path tensor(s) below threshold: action_bias per-channel std < 1e-4 (constant output across contexts, g2). Requires redesigning how cue_action_proj output is consumed (learnable scale, different injection point, or folding cue_action into E2.action_object() directly).",
  "acceptance_checks": {
    "C1_diagnosis_localised": true,
    "C1_offenders": [
      "action_bias per-channel std < 1e-4 (constant output across contexts, g2)"
    ],
    "C2_detach_isolated_bonus": false,
    "C3_context_memory_pre_zero": true,
    "C4_supervised_target_sanity": true,
    "primary_pass": true,
    "baseline_norm_thresh": 0.0001,
    "context_memory_norm_thresh": 0.001,
    "target_norm_thresh": 0.001,
    "coverage_thresh": 0.8,
    "detach_bypass_div_thresh": 0.05
  },
  "diagnosis_summary": "detach is not the sole blocker. Forward-path tensor(s) below threshold: action_bias per-channel std < 1e-4 (constant output across contexts, g2). Requires redesigning how cue_action_proj output is consumed (learnable scale, different injection point, or folding cue_action into E2.action_object() directly).",
  "training_variants": {
    "W_std": {
      "label": "W_std",
      "no_detach": false,
      "weight_delta_norm": 0.0880170464515686,
      "weight_norm_final": 2.3023831844329834,
      "weight_max_abs_final": 0.1270342320203781,
      "weight_nonzero_frac": 1.0,
      "target_norm_mean": 0.3443829066757758,
      "target_coverage_gt_1e-3": 1.0,
      "n_target_samples": 1091
    },
    "W_no_detach": {
      "label": "W_no_detach",
      "no_detach": true,
      "weight_delta_norm": 0.0880170464515686,
      "weight_norm_final": 2.3023831844329834,
      "weight_max_abs_final": 0.1270342320203781,
      "weight_nonzero_frac": 1.0,
      "target_norm_mean": 0.3443829066757758,
      "target_coverage_gt_1e-3": 1.0,
      "n_target_samples": 1091
    }
  },
  "eval_regimes": {
    "g1_supervised_active_during_eval": {
      "regime": "g1",
      "n_safe": 168,
      "n_dang": 68,
      "action_bias_div": 0.0033752918243408203,
      "action_bias_norm_mean": 0.3273101515941701,
      "action_bias_norm_min": 0.322491854429245,
      "action_bias_norm_max": 0.3303402364253998,
      "action_bias_per_channel_std": 0.005323377903550863,
      "action_bias_coverage_gt_1e-3": 1.0,
      "terrain_weight_norm_mean": 0.8531894562608104,
      "ao_target_norm_mean": 0.3449308830550161,
      "ao_target_coverage_gt_1e-3": 1.0,
      "attn_entropy_mean": 2.7725883015131547,
      "attn_max_weight_mean": 0.06259149170906866,
      "context_memory": {
        "slot_norm_mean": 0.2656826078891754,
        "slot_norm_min": 0.23849177360534668,
        "slot_norm_max": 0.2918270230293274,
        "slot_diversity": 0.1726739883422852,
        "num_slots": 16
      },
      "sampled_action_biases": [
        [
          0.06394533067941666,
          0.0892152413725853,
          0.012143377214670181,
          0.11326558142900467,
          -0.12998908758163452,
          -0.05311448872089386,
          -0.04648461937904358,
          0.07713884860277176,
          -0.06496121734380722,
          0.038080476224422455,
          0.10645761340856552,
          0.046712152659893036,
          -0.08609239757061005,
          -0.10514801740646362,
          -0.0012090019881725311,
          0.11615394055843353
        ],
        [
          0.07150093466043472,
          0.0751420259475708,
          0.020375415682792664,
          0.10567454993724823,
          -0.1314350664615631,
          -0.05544029921293259,
          -0.04843829199671745,
          0.07648224383592606,
          -0.0653955265879631,
          0.0375618115067482,
          0.09763357043266296,
          0.0487392395734787,
          -0.08193181455135345,
          -0.11477541923522949,
          0.012045886367559433,
          0.13491274416446686
        ],
        [
          0.08002670109272003,
          0.0817108303308487,
          0.024623587727546692,
          0.10420728474855423,
          -0.13142552971839905,
          -0.05540139973163605,
          -0.05385136231780052,
          0.07406759262084961,
          -0.055425629019737244,
          0.033457688987255096,
          0.09939537197351456,
          0.05854339897632599,
          -0.0913863480091095,
          -0.10581439733505249,
          0.009364143013954163,
          0.13134166598320007
        ],
        [
          0.08906017243862152,
          0.0945596992969513,
          0.03062281757593155,
          0.10891521722078323,
          -0.13438181579113007,
          -0.04893694072961807,
          -0.05377538502216339,
          0.06691470742225647,
          -0.0454319529235363,
          0.034868836402893066,
          0.10828571766614914,
          0.060741543769836426,
          -0.09173604846000671,
          -0.09806494414806366,
          0.015600576996803284,
          0.11809923499822617
        ],
        [
          0.07313142716884613,
          0.08745671808719635,
          0.024836473166942596,
          0.10072002559900284,
          -0.12430219352245331,
          -0.05683267116546631,
          -0.05283965915441513,
          0.08347807824611664,
          -0.0733649879693985,
          0.03191365674138069,
          0.09770307689905167,
          0.05114118754863739,
          -0.08453446626663208,
          -0.11080823093652725,
          0.013468299061059952,
          0.1343396157026291
        ],
        [
          0.05512159317731857,
          0.0714372768998146,
          0.02111893519759178,
          0.11589650809764862,
          -0.13175536692142487,
          -0.05269887298345566,
          -0.03458511084318161,
          0.08088462799787521,
          -0.08421552181243896,
          0.04137839376926422,
          0.09852934628725052,
          0.03417681157588959,
          -0.07339006662368774,
          -0.12086839228868484,
          0.007814168930053711,
          0.12454156577587128
        ],
        [
          0.06924939900636673,
          0.07767706364393234,
          0.03213811293244362,
          0.11219272017478943,
          -0.1315358281135559,
          -0.05532558262348175,
          -0.03876296803355217,
          0.08049953728914261,
          -0.07944153249263763,
          0.036149680614471436,
          0.09852135181427002,
          0.044349223375320435,
          -0.0783374011516571,
          -0.11549373716115952,
          0.013459447771310806,
          0.1258426010608673
        ],
        [
          0.06938299536705017,
          0.08516763895750046,
          0.02095668762922287,
          0.10665339976549149,
          -0.13077795505523682,
          -0.05323674529790878,
          -0.04959500953555107,
          0.07879473268985748,
          -0.06472577899694443,
          0.03585983067750931,
          0.10187608003616333,
          0.05147729814052582,
          -0.08415145426988602,
          -0.10890264809131622,
          0.008593741804361343,
          0.12646903097629547
        ],
        [
          0.0819912850856781,
          0.09074820578098297,
          0.021642934530973434,
          0.10685279965400696,
          -0.13318219780921936,
          -0.050792425870895386,
          -0.05467969551682472,
          0.0710248053073883,
          -0.0508396252989769,
          0.0358998142182827,
          0.10816005617380142,
          0.055424049496650696,
          -0.08938178420066833,
          -0.10217360407114029,
          0.009938579052686691,
          0.12408185750246048
        ],
        [
          0.06933025270700455,
          0.07695329189300537,
          0.03310823440551758,
          0.11228357255458832,
          -0.13178496062755585,
          -0.05575641989707947,
          -0.0382135771214962,
          0.07992056012153625,
          -0.07884874939918518,
          0.036668598651885986,
          0.09766566753387451,
          0.04410988837480545,
          -0.07713750749826431,
          -0.11638446152210236,
          0.01442430168390274,
          0.126674085855484
        ]
      ]
    },
    "g2_frozen_weights_post_training": {
      "regime": "g2",
      "n_safe": 150,
      "n_dang": 89,
      "action_bias_div": 0.0,
      "action_bias_norm_mean": 0.32551434972794985,
      "action_bias_norm_min": 0.3255142271518707,
      "action_bias_norm_max": 0.32551446557044983,
      "action_bias_per_channel_std": 2.481167271639606e-08,
      "action_bias_coverage_gt_1e-3": 1.0,
      "terrain_weight_norm_mean": 0.8537258014519344,
      "ao_target_norm_mean": 0.3451251789116959,
      "ao_target_coverage_gt_1e-3": 1.0,
      "attn_entropy_mean": 2.7725882979117675,
      "attn_max_weight_mean": 0.06259155345137649,
      "context_memory": {
        "slot_norm_mean": 0.2656826078891754,
        "slot_norm_min": 0.23849177360534668,
        "slot_norm_max": 0.2918270230293274,
        "slot_diversity": 0.1726739883422852,
        "num_slots": 16
      },
      "sampled_action_biases": [
        [
          0.06851918995380402,
          0.0805557444691658,
          0.017586510628461838,
          0.10448897629976273,
          -0.129506453871727,
          -0.058839112520217896,
          -0.050193995237350464,
          0.0787176787853241,
          -0.06619111448526382,
          0.033613529056310654,
          0.09539881348609924,
          0.05148299038410187,
          -0.08265230059623718,
          -0.11245842278003693,
          0.0078006647527217865,
          0.13340401649475098
        ],
        [
          0.0685192197561264,
          0.0805557444691658,
          0.017586570233106613,
          0.10448900610208511,
          -0.1295064389705658,
          -0.05883917212486267,
          -0.05019395798444748,
          0.0787176862359047,
          -0.06619103997945786,
          0.033613547682762146,
          0.09539878368377686,
          0.051483072340488434,
          -0.08265228569507599,
          -0.1124584749341011,
          0.007800672203302383,
          0.13340401649475098
        ],
        [
          0.0685192346572876,
          0.08055577427148819,
          0.01758650317788124,
          0.10448906570672989,
          -0.1295064389705658,
          -0.05883921682834625,
          -0.05019398778676987,
          0.07871770113706589,
          -0.06619103997945786,
          0.03361360728740692,
          0.09539879858493805,
          0.05148303508758545,
          -0.08265229314565659,
          -0.11245846748352051,
          0.007800687104463577,
          0.13340404629707336
        ],
        [
          0.06851924955844879,
          0.08055585622787476,
          0.017586510628461838,
          0.10448914021253586,
          -0.129506453871727,
          -0.058839261531829834,
          -0.05019403249025345,
          0.07871770113706589,
          -0.06619104743003845,
          0.03361351788043976,
          0.09539882838726044,
          0.05148304998874664,
          -0.08265227824449539,
          -0.1124584823846817,
          0.007800739258527756,
          0.13340400159358978
        ],
        [
          0.0685192346572876,
          0.080555759370327,
          0.017586510628461838,
          0.1044890359044075,
          -0.1295064389705658,
          -0.05883915722370148,
          -0.050193965435028076,
          0.0787176564335823,
          -0.06619103997945786,
          0.03361351042985916,
          0.09539879858493805,
          0.05148302763700485,
          -0.08265230059623718,
          -0.11245842278003693,
          0.007800627499818802,
          0.13340400159358978
        ],
        [
          0.06851924955844879,
          0.08055584132671356,
          0.017586465924978256,
          0.10448912531137466,
          -0.129506453871727,
          -0.05883927643299103,
          -0.050194017589092255,
          0.07871769368648529,
          -0.06619104743003845,
          0.033613547682762146,
          0.09539880603551865,
          0.051483072340488434,
          -0.08265227824449539,
          -0.1124584898352623,
          0.007800724357366562,
          0.13340401649475098
        ],
        [
          0.06851926445960999,
          0.08055578917264938,
          0.017586510628461838,
          0.10448906570672989,
          -0.1295064389705658,
          -0.05883921682834625,
          -0.05019400268793106,
          0.0787176713347435,
          -0.06619105488061905,
          0.03361354023218155,
          0.09539879113435745,
          0.05148303508758545,
          -0.08265230059623718,
          -0.11245846003293991,
          0.007800694555044174,
          0.13340404629707336
        ],
        [
          0.06851927936077118,
          0.08055578917264938,
          0.017586495727300644,
          0.10448906570672989,
          -0.1295064389705658,
          -0.05883921682834625,
          -0.050194017589092255,
          0.07871770113706589,
          -0.06619104743003845,
          0.03361353278160095,
          0.09539881348609924,
          0.05148301273584366,
          -0.08265230059623718,
          -0.11245846003293991,
          0.007800694555044174,
          0.13340401649475098
        ],
        [
          0.0685192346572876,
          0.08055586367845535,
          0.017586451023817062,
          0.10448912531137466,
          -0.12950646877288818,
          -0.05883924663066864,
          -0.05019403249025345,
          0.07871772348880768,
          -0.06619105488061905,
          0.03361351788043976,
          0.09539879858493805,
          0.05148304998874664,
          -0.0826522707939148,
          -0.1124584749341011,
          0.007800702005624771,
          0.13340401649475098
        ],
        [
          0.06851924955844879,
          0.08055576682090759,
          0.017586495727300644,
          0.10448900610208511,
          -0.1295064240694046,
          -0.05883920192718506,
          -0.05019397288560867,
          0.07871770113706589,
          -0.06619103997945786,
          0.03361355513334274,
          0.09539880603551865,
          0.05148306488990784,
          -0.08265228569507599,
          -0.11245843023061752,
          0.007800672203302383,
          0.13340401649475098
        ]
      ]
    },
    "g3_detach_bypassed_during_training": {
      "regime": "g3",
      "n_safe": 214,
      "n_dang": 70,
      "action_bias_div": 0.0,
      "action_bias_norm_mean": 0.3224919223239724,
      "action_bias_norm_min": 0.3224918246269226,
      "action_bias_norm_max": 0.3224920630455017,
      "action_bias_per_channel_std": 2.336357241006226e-08,
      "action_bias_coverage_gt_1e-3": 1.0,
      "terrain_weight_norm_mean": 0.8525163592167304,
      "ao_target_norm_mean": 0.34455513607868005,
      "ao_target_coverage_gt_1e-3": 1.0,
      "attn_entropy_mean": 2.772588291638334,
      "attn_max_weight_mean": 0.06259146332740784,
      "context_memory": {
        "slot_norm_mean": 0.266018271446228,
        "slot_norm_min": 0.23881542682647705,
        "slot_norm_max": 0.29217302799224854,
        "slot_diversity": 0.17223682403564455,
        "num_slots": 16
      },
      "sampled_action_biases": [
        [
          0.06394533067941666,
          0.0892152413725853,
          0.012143377214670181,
          0.11326558142900467,
          -0.12998908758163452,
          -0.05311448872089386,
          -0.04648461937904358,
          0.07713884860277176,
          -0.06496121734380722,
          0.038080476224422455,
          0.10645761340856552,
          0.046712152659893036,
          -0.08609239757061005,
          -0.10514801740646362,
          -0.0012090019881725311,
          0.11615394055843353
        ],
        [
          0.06394536048173904,
          0.08921531587839127,
          0.012143384665250778,
          0.11326564103364944,
          -0.12998910248279572,
          -0.053114548325538635,
          -0.04648464918136597,
          0.07713887095451355,
          -0.06496123224496841,
          0.038080453872680664,
          0.10645763576030731,
          0.04671216756105423,
          -0.08609239012002945,
          -0.10514804720878601,
          -0.0012089423835277557,
          0.11615394055843353
        ],
        [
          0.06394534558057785,
          0.08921531587839127,
          0.01214342936873436,
          0.11326567083597183,
          -0.1299891173839569,
          -0.05311456322669983,
          -0.04648463428020477,
          0.07713882625102997,
          -0.06496118009090424,
          0.03808043897151947,
          0.10645760595798492,
          0.04671218991279602,
          -0.08609242737293243,
          -0.1051480621099472,
          -0.0012089796364307404,
          0.11615394055843353
        ],
        [
          0.06394534558057785,
          0.08921531587839127,
          0.012143414467573166,
          0.11326564103364944,
          -0.12998908758163452,
          -0.05311451852321625,
          -0.04648467153310776,
          0.07713885605335236,
          -0.06496118754148483,
          0.03808046504855156,
          0.10645759105682373,
          0.04671219736337662,
          -0.08609239012002945,
          -0.1051480621099472,
          -0.0012089498341083527,
          0.11615395545959473
        ],
        [
          0.06394531577825546,
          0.08921528607606888,
          0.01214342936873436,
          0.11326564103364944,
          -0.12998908758163452,
          -0.05311451852321625,
          -0.04648461192846298,
          0.07713881880044937,
          -0.06496121734380722,
          0.038080453872680664,
          0.10645758360624313,
          0.04671221226453781,
          -0.08609239757061005,
          -0.10514803230762482,
          -0.0012089572846889496,
          0.11615395545959473
        ],
        [
          0.06394533067941666,
          0.08921530097723007,
          0.012143369764089584,
          0.11326562613248825,
          -0.12998910248279572,
          -0.05311453342437744,
          -0.04648463428020477,
          0.07713882625102997,
          -0.06496122479438782,
          0.038080424070358276,
          0.10645760595798492,
          0.04671219736337662,
          -0.08609239757061005,
          -0.10514801740646362,
          -0.0012089572846889496,
          0.11615397036075592
        ],
        [
          0.06394534558057785,
          0.08921530842781067,
          0.012143384665250778,
          0.11326562613248825,
          -0.12998905777931213,
          -0.05311453342437744,
          -0.04648464173078537,
          0.07713884860277176,
          -0.06496123969554901,
          0.03808043897151947,
          0.10645760595798492,
          0.04671214520931244,
          -0.08609237521886826,
          -0.10514803230762482,
          -0.0012089572846889496,
          0.11615392565727234
        ],
        [
          0.06394528597593307,
          0.08921536058187485,
          0.012143421918153763,
          0.11326570063829422,
          -0.1299891173839569,
          -0.05311457812786102,
          -0.046484656631946564,
          0.07713885605335236,
          -0.06496121734380722,
          0.03808043897151947,
          0.10645761340856552,
          0.046712182462215424,
          -0.08609236776828766,
          -0.1051480621099472,
          -0.0012089274823665619,
          0.11615391075611115
        ],
        [
          0.06394531577825546,
          0.08921528607606888,
          0.012143414467573166,
          0.11326564103364944,
          -0.1299891173839569,
          -0.05311453342437744,
          -0.04648459702730179,
          0.07713887840509415,
          -0.06496120244264603,
          0.03808046877384186,
          0.10645760595798492,
          0.04671219736337662,
          -0.08609238266944885,
          -0.10514804720878601,
          -0.0012089498341083527,
          0.11615392565727234
        ],
        [
          0.06394534558057785,
          0.08921533077955246,
          0.012143407016992569,
          0.11326564103364944,
          -0.12998905777931213,
          -0.05311457812786102,
          -0.04648464918136597,
          0.07713887840509415,
          -0.06496118009090424,
          0.03808046504855156,
          0.10645760595798492,
          0.04671219736337662,
          -0.08609238266944885,
          -0.1051480695605278,
          -0.0012089423835277557,
          0.11615394055843353
        ]
      ]
    }
  },
  "params": {
    "seed": 42,
    "p0_episodes": 25,
    "p1_episodes": 50,
    "eval_episodes": 12,
    "steps_per_episode": 150,
    "context_switch_every": 5,
    "lambda_terrain": 0.1,
    "lambda_cue_action": 0.5,
    "sd016_enabled": true,
    "sws_enabled": false,
    "rem_enabled": false,
    "shy_enabled": false,
    "dry_run": false
  }
}